digraph Tree {
node [shape=box, fontname="helvetica"] ;
edge [fontname="helvetica"] ;
0 [label="bang <= 0.079\ngini = 0.478\nsamples = 3450\nvalue = [2083, 1367]"] ;
1 [label="dollar <= 0.056\ngini = 0.264\nsamples = 2005\nvalue = [1691, 314]"] ;
0 -> 1 [labeldistance=2.5, labelangle=45, headlabel="True"] ;
2 [label="n000 <= 0.26\ngini = 0.184\nsamples = 1805\nvalue = [1620, 185]"] ;
1 -> 2 ;
3 [label="money <= 0.63\ngini = 0.176\nsamples = 1790\nvalue = [1615, 175]"] ;
2 -> 3 ;
4 [label="bang <= 0.029\ngini = 0.171\nsamples = 1779\nvalue = [1611, 168]"] ;
3 -> 4 ;
5 [label="gini = 0.158\nsamples = 1659\nvalue = [1516, 143]"] ;
4 -> 5 ;
6 [label="gini = 0.33\nsamples = 120\nvalue = [95, 25]"] ;
4 -> 6 ;
7 [label="gini = 0.463\nsamples = 11\nvalue = [4, 7]"] ;
3 -> 7 ;
8 [label="n000 <= 0.45\ngini = 0.444\nsamples = 15\nvalue = [5, 10]"] ;
2 -> 8 ;
9 [label="gini = 0.219\nsamples = 8\nvalue = [1, 7]"] ;
8 -> 9 ;
10 [label="gini = 0.49\nsamples = 7\nvalue = [4, 3]"] ;
8 -> 10 ;
11 [label="money <= 0.025\ngini = 0.458\nsamples = 200\nvalue = [71, 129]"] ;
1 -> 11 ;
12 [label="n000 <= 0.42\ngini = 0.499\nsamples = 125\nvalue = [65, 60]"] ;
11 -> 12 ;
13 [label="dollar <= 0.165\ngini = 0.485\nsamples = 111\nvalue = [65, 46]"] ;
12 -> 13 ;
14 [label="gini = 0.383\nsamples = 62\nvalue = [46, 16]"] ;
13 -> 14 ;
15 [label="gini = 0.475\nsamples = 49\nvalue = [19, 30]"] ;
13 -> 15 ;
16 [label="gini = 0.0\nsamples = 14\nvalue = [0, 14]"] ;
12 -> 16 ;
17 [label="dollar <= 0.125\ngini = 0.147\nsamples = 75\nvalue = [6, 69]"] ;
11 -> 17 ;
18 [label="bang <= 0.046\ngini = 0.308\nsamples = 21\nvalue = [4, 17]"] ;
17 -> 18 ;
19 [label="gini = 0.408\nsamples = 14\nvalue = [4, 10]"] ;
18 -> 19 ;
20 [label="gini = 0.0\nsamples = 7\nvalue = [0, 7]"] ;
18 -> 20 ;
21 [label="dollar <= 0.216\ngini = 0.071\nsamples = 54\nvalue = [2, 52]"] ;
17 -> 21 ;
22 [label="gini = 0.0\nsamples = 47\nvalue = [0, 47]"] ;
21 -> 22 ;
23 [label="gini = 0.408\nsamples = 7\nvalue = [2, 5]"] ;
21 -> 23 ;
24 [label="dollar <= 0.007\ngini = 0.395\nsamples = 1445\nvalue = [392, 1053]"] ;
0 -> 24 [labeldistance=2.5, labelangle=-45, headlabel="False"] ;
25 [label="bang <= 0.477\ngini = 0.5\nsamples = 729\nvalue = [365, 364]"] ;
24 -> 25 ;
26 [label="money <= 0.095\ngini = 0.472\nsamples = 449\nvalue = [278, 171]"] ;
25 -> 26 ;
27 [label="n000 <= 0.34\ngini = 0.442\nsamples = 407\nvalue = [273, 134]"] ;
26 -> 27 ;
28 [label="gini = 0.431\nsamples = 398\nvalue = [273, 125]"] ;
27 -> 28 ;
29 [label="gini = 0.0\nsamples = 9\nvalue = [0, 9]"] ;
27 -> 29 ;
30 [label="money <= 0.725\ngini = 0.21\nsamples = 42\nvalue = [5, 37]"] ;
26 -> 30 ;
31 [label="gini = 0.111\nsamples = 34\nvalue = [2, 32]"] ;
30 -> 31 ;
32 [label="gini = 0.469\nsamples = 8\nvalue = [3, 5]"] ;
30 -> 32 ;
33 [label="bang <= 5.027\ngini = 0.428\nsamples = 280\nvalue = [87, 193]"] ;
25 -> 33 ;
34 [label="bang <= 0.773\ngini = 0.417\nsamples = 273\nvalue = [81, 192]"] ;
33 -> 34 ;
35 [label="gini = 0.475\nsamples = 121\nvalue = [47, 74]"] ;
34 -> 35 ;
36 [label="gini = 0.347\nsamples = 152\nvalue = [34, 118]"] ;
34 -> 36 ;
37 [label="gini = 0.245\nsamples = 7\nvalue = [6, 1]"] ;
33 -> 37 ;
38 [label="bang <= 0.373\ngini = 0.073\nsamples = 716\nvalue = [27, 689]"] ;
24 -> 38 ;
39 [label="make <= 0.025\ngini = 0.141\nsamples = 314\nvalue = [24, 290]"] ;
38 -> 39 ;
40 [label="bang <= 0.28\ngini = 0.236\nsamples = 161\nvalue = [22, 139]"] ;
39 -> 40 ;
41 [label="gini = 0.176\nsamples = 123\nvalue = [12, 111]"] ;
40 -> 41 ;
42 [label="gini = 0.388\nsamples = 38\nvalue = [10, 28]"] ;
40 -> 42 ;
43 [label="n000 <= 0.02\ngini = 0.026\nsamples = 153\nvalue = [2, 151]"] ;
39 -> 43 ;
44 [label="gini = 0.081\nsamples = 47\nvalue = [2, 45]"] ;
43 -> 44 ;
45 [label="gini = 0.0\nsamples = 106\nvalue = [0, 106]"] ;
43 -> 45 ;
46 [label="n000 <= 0.03\ngini = 0.015\nsamples = 402\nvalue = [3, 399]"] ;
38 -> 46 ;
47 [label="bang <= 0.411\ngini = 0.031\nsamples = 191\nvalue = [3, 188]"] ;
46 -> 47 ;
48 [label="gini = 0.219\nsamples = 8\nvalue = [1, 7]"] ;
47 -> 48 ;
49 [label="gini = 0.022\nsamples = 183\nvalue = [2, 181]"] ;
47 -> 49 ;
50 [label="gini = 0.0\nsamples = 211\nvalue = [0, 211]"] ;
46 -> 50 ;
}